,SPY,QQQ,IWM,XLF,XLK,XLE,XLV,TLT,GLD
2023-04-28,0.1111111111111111,0.1111111111111111,0.1111111111111111,0.1111111111111111,0.1111111111111111,0.1111111111111111,0.1111111111111111,0.1111111111111111,0.1111111111111111
2023-05-31,0.1111111111111111,0.1111111111111111,0.1111111111111111,0.1111111111111111,0.1111111111111111,0.1111111111111111,0.1111111111111111,0.1111111111111111,0.1111111111111111
2023-06-30,0.1111111111111111,0.1111111111111111,0.1111111111111111,0.1111111111111111,0.1111111111111111,0.1111111111111111,0.1111111111111111,0.1111111111111111,0.1111111111111111
2023-07-31,0.1111111111111111,0.1111111111111111,0.1111111111111111,0.1111111111111111,0.1111111111111111,0.1111111111111111,0.1111111111111111,0.1111111111111111,0.1111111111111111
2023-08-31,0.1111111111111111,0.1111111111111111,0.1111111111111111,0.1111111111111111,0.1111111111111111,0.1111111111111111,0.1111111111111111,0.1111111111111111,0.1111111111111111
2023-09-29,0.1111111111111111,0.1111111111111111,0.1111111111111111,0.1111111111111111,0.1111111111111111,0.1111111111111111,0.1111111111111111,0.1111111111111111,0.1111111111111111
2023-10-31,0.1111111111111111,0.1111111111111111,0.1111111111111111,0.1111111111111111,0.1111111111111111,0.1111111111111111,0.1111111111111111,0.1111111111111111,0.1111111111111111
2023-11-30,0.1111111111111111,0.1111111111111111,0.1111111111111111,0.1111111111111111,0.1111111111111111,0.1111111111111111,0.1111111111111111,0.1111111111111111,0.1111111111111111
2023-12-29,0.1111111111111111,0.1111111111111111,0.1111111111111111,0.1111111111111111,0.1111111111111111,0.1111111111111111,0.1111111111111111,0.1111111111111111,0.1111111111111111
2024-01-31,0.1111111111111111,0.1111111111111111,0.1111111111111111,0.1111111111111111,0.1111111111111111,0.1111111111111111,0.1111111111111111,0.1111111111111111,0.1111111111111111
2024-02-29,0.1111111111111111,0.1111111111111111,0.1111111111111111,0.1111111111111111,0.1111111111111111,0.1111111111111111,0.1111111111111111,0.1111111111111111,0.1111111111111111
2024-03-28,0.1111111111111111,0.1111111111111111,0.1111111111111111,0.1111111111111111,0.1111111111111111,0.1111111111111111,0.1111111111111111,0.1111111111111111,0.1111111111111111
2024-04-30,0.1111111111111111,0.1111111111111111,0.1111111111111111,0.1111111111111111,0.1111111111111111,0.1111111111111111,0.1111111111111111,0.1111111111111111,0.1111111111111111
2024-05-31,0.49999999999999994,-0.07044304589504347,-0.28089746914920355,0.11004013294670564,-0.11427038442332343,0.04944865279500764,0.28640343378830146,0.1595766954716626,0.36014198446589324
2024-06-28,0.4771641520582132,-0.005933183774484839,-0.29999999999999993,0.0978331647761643,-0.0506461560390713,0.076021875715138,0.248749782853638,0.10469109336775782,0.35211927104264473
2024-07-31,0.43619785079320383,0.007789282176567723,-0.3,0.1908731191192426,-0.09014883582619909,0.05598126552998229,0.24007426426601264,0.051505321888133476,0.4077277320530565
2024-08-30,0.27005032991478445,0.06618086003548287,-0.3,0.2541541142015738,-0.06673333562698165,0.015067405391492197,0.29651245959356276,0.049886378103445345,0.4148817883866402
2024-09-30,0.5,0.053217989830085285,-0.3,0.22385107393519474,-0.11129299797856718,0.020830045878423405,0.1538905472987766,0.024382515279449228,0.4351208257566379
2024-10-31,0.5,0.17245230024182534,-0.3,0.33130025422071974,-0.17682920207185376,-0.048847314825327975,0.03993198274042531,-0.001062427794701687,0.48305440748891304
2024-11-29,0.5,0.3662677671050047,-0.3,0.4113890561477139,-0.2999999999999999,-0.035337981420265265,-0.10111907368912011,0.014138836915193326,0.4446613949414734
2024-12-31,0.4999999999999999,0.4237335910361674,-0.29999999999999993,0.3771473221943015,-0.3,-0.025881305670158096,-0.10771951576498308,0.026155363230137434,0.4065645449745349
2025-01-31,0.5000000000000001,0.38657703872839055,-0.29999999999999993,0.4009185522464878,-0.30000000000000004,-0.06487105111549617,-0.0035642258315991054,-0.06727396945585805,0.44821365542807484
2025-02-28,0.48218827226716376,0.373952402898095,-0.29999999999999993,0.4209307544237451,-0.29999999999999993,-0.059867549392814044,-0.04298429664138749,-0.06995596493138696,0.4957363813765845
2025-03-31,0.4684145157546354,0.28390068951498865,-0.3,0.5000000000000001,-0.30000000000000004,-0.0156123761140233,-0.03331962285735164,-0.10338320629824913,0.5000000000000001
2025-04-30,-0.20547427866396104,0.4616806613421024,-0.29999999999999993,0.4936409142980679,-0.1915716750348661,-0.009982840323852948,0.16689363678261235,0.13443644104016075,0.45037714055973677
2025-05-30,0.39890753700114484,0.154659800318582,-0.3,0.4008423751290812,-0.21911192505693577,-0.03529864676741491,0.04069669377203407,0.15545751845677408,0.4038466471467345
2025-06-30,0.37920579087571143,0.10170233303676114,-0.3,0.4177371636178413,-0.1658391187254392,-0.02510263318279667,0.023762204604292222,0.15436236437858833,0.41417189539504146
2025-07-31,0.4285843398401309,0.0825405597199128,-0.3,0.37508557857740454,-0.15075073206629402,-0.021733109168514213,0.014848835506716654,0.16729330324283945,0.404131224347804
2025-08-29,0.49999999999999994,0.05805142828532779,-0.30000000000000004,0.3891540139357571,-0.16429015928004786,-0.04256837998069762,-0.023817010542435398,0.17666471527531713,0.40680539230677887
2025-09-30,0.49999999999999994,0.010922805446918165,-0.27069470561644904,0.37232303950080076,-0.12486644178187885,-0.055957970176470584,-0.04430697152172374,0.1975482037806458,0.4150320403681576
2025-10-31,0.5000000000000001,0.08008993344303886,-0.2746807247826324,0.36057906183806576,-0.1458380746910341,-0.08576944670734818,-0.038317490002698386,0.2200852757977513,0.38385146510485707
2025-11-28,0.5000000000000001,0.20450316540308094,-0.2649276791220391,0.3030873325154848,-0.2827640486929736,-0.061690602620834124,0.023210922670316554,0.17249521142015553,0.4060856984268089
2025-12-31,0.5000000000000001,0.08542387326316277,-0.3,0.3313900996201344,-0.1752893839655367,-0.04224575244971154,0.021145846475488977,0.1739391418415585,0.40563617521490364
2026-01-30,0.4999999999999998,0.1708216098446658,-0.22250669093850667,0.19699880608841883,-0.27355851963525546,0.008761171363409415,0.0027286048266713125,0.1989722116008035,0.4177828068497935
2026-02-27,0.5000000000000001,0.17423899238996676,-0.2095110226695206,0.1790277666013202,-0.27934076754740167,0.03403345169432227,-0.01427723594926588,0.26288158709882464,0.3529472283817542
2026-03-31,0.4870884026480242,0.17629752790475223,-0.26656519908437354,0.17321691477473689,-0.26345155200080683,0.12623656253458912,-0.03682309562311968,0.30530440398270986,0.29869603486348784
