,SPY,QQQ,IWM,XLF,XLK,XLE,XLV,TLT,GLD
2023-04-28,0.1111111111111111,0.1111111111111111,0.1111111111111111,0.1111111111111111,0.1111111111111111,0.1111111111111111,0.1111111111111111,0.1111111111111111,0.1111111111111111
2023-05-31,0.1111111111111111,0.1111111111111111,0.1111111111111111,0.1111111111111111,0.1111111111111111,0.1111111111111111,0.1111111111111111,0.1111111111111111,0.1111111111111111
2023-06-30,0.1111111111111111,0.1111111111111111,0.1111111111111111,0.1111111111111111,0.1111111111111111,0.1111111111111111,0.1111111111111111,0.1111111111111111,0.1111111111111111
2023-07-31,0.1111111111111111,0.1111111111111111,0.1111111111111111,0.1111111111111111,0.1111111111111111,0.1111111111111111,0.1111111111111111,0.1111111111111111,0.1111111111111111
2023-08-31,0.1111111111111111,0.1111111111111111,0.1111111111111111,0.1111111111111111,0.1111111111111111,0.1111111111111111,0.1111111111111111,0.1111111111111111,0.1111111111111111
2023-09-29,0.1111111111111111,0.1111111111111111,0.1111111111111111,0.1111111111111111,0.1111111111111111,0.1111111111111111,0.1111111111111111,0.1111111111111111,0.1111111111111111
2023-10-31,0.1111111111111111,0.1111111111111111,0.1111111111111111,0.1111111111111111,0.1111111111111111,0.1111111111111111,0.1111111111111111,0.1111111111111111,0.1111111111111111
2023-11-30,0.1111111111111111,0.1111111111111111,0.1111111111111111,0.1111111111111111,0.1111111111111111,0.1111111111111111,0.1111111111111111,0.1111111111111111,0.1111111111111111
2023-12-29,0.1111111111111111,0.1111111111111111,0.1111111111111111,0.1111111111111111,0.1111111111111111,0.1111111111111111,0.1111111111111111,0.1111111111111111,0.1111111111111111
2024-01-31,0.1111111111111111,0.1111111111111111,0.1111111111111111,0.1111111111111111,0.1111111111111111,0.1111111111111111,0.1111111111111111,0.1111111111111111,0.1111111111111111
2024-02-29,0.1111111111111111,0.1111111111111111,0.1111111111111111,0.1111111111111111,0.1111111111111111,0.1111111111111111,0.1111111111111111,0.1111111111111111,0.1111111111111111
2024-03-28,0.1111111111111111,0.1111111111111111,0.1111111111111111,0.1111111111111111,0.1111111111111111,0.1111111111111111,0.1111111111111111,0.1111111111111111,0.1111111111111111
2024-04-30,0.1111111111111111,0.1111111111111111,0.1111111111111111,0.1111111111111111,0.1111111111111111,0.1111111111111111,0.1111111111111111,0.1111111111111111,0.1111111111111111
2024-05-31,0.5000000000000001,-0.07045728197486767,-0.2808947622986255,0.11004148680013397,-0.11425980228997719,0.04944685637204583,0.286404855244145,0.15957601184376843,0.36014263630337706
2024-06-28,0.47722079464426903,-0.005965787420364629,-0.3,0.09782282703117504,-0.050642864637407733,0.07601737880445271,0.24873920238874875,0.10468892386320391,0.3521195253259229
2024-07-31,0.4362286874207638,0.007762703441906213,-0.3,0.19086822479392918,-0.09013929656468585,0.05597790997360371,0.2400697189990794,0.05150401695487602,0.40772803498052756
2024-08-30,0.27006495055020213,0.0661624225636462,-0.3,0.2541517845896364,-0.06672417141227445,0.015065833907544643,0.29651148221455315,0.04988662632677316,0.4148810712599188
2024-09-30,0.5,0.053206153356977356,-0.3,0.2238512703941402,-0.11128300496715782,0.020828867856858647,0.15389399227068531,0.024382571607507543,0.43512014948098887
2024-10-31,0.5,0.17244395765586545,-0.3,0.3313007477918527,-0.1768220786081466,-0.048848245270474336,0.039934643701756534,-0.0010631540359755652,0.4830541287651219
2024-11-29,0.5,0.3662677956589156,-0.3,0.4113896781852325,-0.3,-0.035338954540771184,-0.10111691750141828,0.014137244967422963,0.4446611532306185
2024-12-31,0.5,0.4237333208248068,-0.30000000000000004,0.3771484229636459,-0.30000000000000004,-0.025882378795907605,-0.1077175544080403,0.026154183952178556,0.4065640054633168
2025-01-31,0.49999999999999994,0.3865773102741147,-0.30000000000000004,0.4009195392375749,-0.30000000000000004,-0.06487206582008825,-0.003563572411615856,-0.06727434349295425,0.44821313221296916
2025-02-28,0.48214288155297635,0.37397690329000216,-0.3,0.4209402859906913,-0.29999999999999993,-0.05986568371579731,-0.042975157882378094,-0.06995525403788048,0.49573602480238615
2025-03-31,0.4683954957081392,0.283913749040675,-0.2999999999999999,0.49999999999999983,-0.29999999999999993,-0.015611283331178174,-0.033313357225144884,-0.10338460419249113,0.4999999999999999
2025-04-30,-0.20551140725683933,0.46169062668304695,-0.3,0.4936511730155344,-0.191562555519604,-0.009981634634598675,0.16690012219831474,0.13443674426790894,0.450376931246237
2025-05-30,0.3988657348905725,0.15467295678902812,-0.29999999999999993,0.4008511282136848,-0.21910282106865703,-0.03529630827013926,0.04070488352130409,0.15545835933044314,0.40384606659376365
2025-06-30,0.3791535297018377,0.10172323381386851,-0.2999999999999999,0.41774762523564435,-0.16583088964902784,-0.025100061455424393,0.023771737482303306,0.15436346398921616,0.41417136088158196
2025-07-31,0.42852911472389305,0.08256191106442826,-0.29999999999999993,0.3750965077092924,-0.15074141687500994,-0.021730046620492625,0.014858531425321496,0.1672944553197477,0.40413094325281956
2025-08-29,0.5000000000000001,0.05804665862526628,-0.3,0.3891520733174787,-0.1642861124470464,-0.04256789237370375,-0.023813673220771953,0.1766647100929757,0.40680423600580146
2025-09-30,0.5,0.010918392896161032,-0.2706941767116385,0.3723210476874449,-0.1248629778385642,-0.055957297838601434,-0.04430397555299269,0.1975481464902114,0.4150308408679795
2025-10-31,0.5,0.08008675654223146,-0.27468079754342467,0.3605781232842834,-0.14583574261221505,-0.08576867107228758,-0.03831551031488219,0.22008519855557285,0.3838506431607218
2025-11-28,0.5000000000000001,0.2045005414273315,-0.2649276707421224,0.3030868578201275,-0.28276191899112657,-0.06169000792130946,0.02321174500198791,0.17249585259411596,0.40608460081099546
2025-12-31,0.4999999999999999,0.08542009044125903,-0.29999999999999993,0.3313894724636902,-0.17528628406076746,-0.04224498149808561,0.021146752863030756,0.17393973528818346,0.4056352145026896
2026-01-30,0.4999999999999999,0.1708202159352931,-0.22250644796863575,0.19699792883821465,-0.2735574267608968,0.008761765637264376,0.0027293305669983934,0.19897268008093116,0.4177819536708308
2026-02-27,0.5,0.17423644436151492,-0.20951053232896014,0.1790272145441691,-0.279338988182278,0.034033914186633665,-0.014276974481825303,0.26288231935216044,0.3529466025485853
2026-03-31,0.48706245303324797,0.17631020580606155,-0.26656457774118386,0.17322124198528166,-0.26344935886250065,0.12623850512070445,-0.036820344572329515,0.305306122131984,0.29869575309873453
